double score(double * input) {
    double var0;
    if (input[17] <= -0.37611642479896545) {
        if (input[28] <= -0.18194283545017242) {
            if (input[29] <= -0.6685225069522858) {
                if (input[8] <= -1.1398450136184692) {
                    if (input[2] <= 0.7566189467906952) {
                        if (input[20] <= 0.8956032693386078) {
                            var0 = 43.2;
                        } else {
                            if (input[11] <= 3.238382339477539) {
                                if (input[5] <= -1.0736799873411655) {
                                    if (input[27] <= -2.288300037384033) {
                                        var0 = 48.6;
                                    } else {
                                        var0 = 48.8;
                                    }
                                } else {
                                    if (input[25] <= 0.37818382680416107) {
                                        var0 = 49.1;
                                    } else {
                                        var0 = 49.4;
                                    }
                                }
                            } else {
                                var0 = 56.3;
                            }
                        }
                    } else {
                        if (input[29] <= -5.018224000930786) {
                            var0 = 14.0;
                        } else {
                            if (input[29] <= -1.8629599809646606) {
                                if (input[13] <= -0.4181854650378227) {
                                    if (input[25] <= -1.215267300605774) {
                                        var0 = 31.0;
                                    } else {
                                        var0 = 32.9;
                                    }
                                } else {
                                    var0 = 35.1;
                                }
                            } else {
                                if (input[17] <= -3.074883759021759) {
                                    var0 = 45.0;
                                } else {
                                    if (input[18] <= -1.3005246818065643) {
                                        if (input[16] <= -0.20920256525278091) {
                                            var0 = 40.2;
                                        } else {
                                            var0 = 40.0;
                                        }
                                    } else {
                                        if (input[16] <= 0.35995036363601685) {
                                            var0 = 37.6;
                                        } else {
                                            var0 = 37.2;
                                        }
                                    }
                                }
                            }
                        }
                    }
                } else {
                    if (input[11] <= 1.1278377771377563) {
                        if (input[29] <= -1.0012444853782654) {
                            if (input[0] <= 0.8604357838630676) {
                                if (input[17] <= -1.2888895869255066) {
                                    if (input[21] <= 0.6065128147602081) {
                                        if (input[22] <= -0.32328078150749207) {
                                            if (input[1] <= 0.3435011953115463) {
                                                var0 = 32.7;
                                            } else {
                                                var0 = 31.9;
                                            }
                                        } else {
                                            if (input[27] <= -0.992356151342392) {
                                                if (input[25] <= 0.5911787152290344) {
                                                    var0 = 30.5;
                                                } else {
                                                    var0 = 31.0;
                                                }
                                            } else {
                                                var0 = 29.6;
                                            }
                                        }
                                    } else {
                                        if (input[20] <= 1.185734748840332) {
                                            if (input[16] <= -0.07182729989290237) {
                                                var0 = 34.1;
                                            } else {
                                                var0 = 33.7;
                                            }
                                        } else {
                                            if (input[9] <= -1.054332673549652) {
                                                var0 = 32.5;
                                            } else {
                                                var0 = 33.1;
                                            }
                                        }
                                    }
                                } else {
                                    var0 = 38.2;
                                }
                            } else {
                                if (input[8] <= -0.17738226056098938) {
                                    if (input[25] <= 0.05428354244213551) {
                                        var0 = 28.1;
                                    } else {
                                        if (input[27] <= -2.1387141942977905) {
                                            var0 = 29.1;
                                        } else {
                                            if (input[10] <= 0.9835218787193298) {
                                                var0 = 29.5;
                                            } else {
                                                var0 = 29.3;
                                            }
                                        }
                                    }
                                } else {
                                    if (input[19] <= -1.4352914094924927) {
                                        var0 = 26.0;
                                    } else {
                                        var0 = 26.0;
                                    }
                                }
                            }
                        } else {
                            if (input[10] <= 0.886811375617981) {
                                var0 = 38.3;
                            } else {
                                if (input[15] <= 2.2133501768112183) {
                                    var0 = 35.5;
                                } else {
                                    var0 = 36.4;
                                }
                            }
                        }
                    } else {
                        if (input[26] <= 0.5789433121681213) {
                            if (input[25] <= 0.8068107813596725) {
                                if (input[20] <= 0.9131869673728943) {
                                    if (input[18] <= -0.8053984493017197) {
                                        var0 = 22.1;
                                    } else {
                                        var0 = 20.9;
                                    }
                                } else {
                                    if (input[11] <= 2.4232531785964966) {
                                        if (input[29] <= -1.892892837524414) {
                                            var0 = 25.0;
                                        } else {
                                            var0 = 25.3;
                                        }
                                    } else {
                                        if (input[13] <= -1.5808165669441223) {
                                            var0 = 24.4;
                                        } else {
                                            var0 = 23.7;
                                        }
                                    }
                                }
                            } else {
                                var0 = 31.4;
                            }
                        } else {
                            if (input[12] <= 1.5053211450576782) {
                                if (input[1] <= 1.7509443759918213) {
                                    if (input[7] <= -2.7650864124298096) {
                                        var0 = 28.6;
                                    } else {
                                        if (input[17] <= -2.7785654067993164) {
                                            var0 = 29.7;
                                        } else {
                                            var0 = 30.4;
                                        }
                                    }
                                } else {
                                    if (input[11] <= 1.71420818567276) {
                                        var0 = 31.6;
                                    } else {
                                        if (input[24] <= -1.7106525897979736) {
                                            var0 = 32.0;
                                        } else {
                                            var0 = 32.2;
                                        }
                                    }
                                }
                            } else {
                                if (input[26] <= 1.2208743691444397) {
                                    var0 = 23.6;
                                } else {
                                    var0 = 26.6;
                                }
                            }
                        }
                    }
                }
            } else {
                if (input[12] <= 1.7838854789733887) {
                    if (input[6] <= -0.27987614274024963) {
                        if (input[28] <= -1.561369001865387) {
                            if (input[17] <= -1.5045132637023926) {
                                if (input[17] <= -1.6832756996154785) {
                                    if (input[16] <= -0.34214016795158386) {
                                        var0 = 40.6;
                                    } else {
                                        if (input[12] <= 1.3873012065887451) {
                                            var0 = 41.4;
                                        } else {
                                            var0 = 42.0;
                                        }
                                    }
                                } else {
                                    var0 = 43.1;
                                }
                            } else {
                                if (input[2] <= 1.5324075520038605) {
                                    var0 = 45.0;
                                } else {
                                    var0 = 47.0;
                                }
                            }
                        } else {
                            if (input[7] <= -1.5084847807884216) {
                                if (input[10] <= 0.6406392157077789) {
                                    var0 = 39.6;
                                } else {
                                    if (input[25] <= 0.08831506967544556) {
                                        var0 = 37.4;
                                    } else {
                                        var0 = 36.1;
                                    }
                                }
                            } else {
                                if (input[14] <= 0.8346012234687805) {
                                    if (input[10] <= 0.4560100808739662) {
                                        if (input[15] <= 0.03189969062805176) {
                                            var0 = 41.2;
                                        } else {
                                            var0 = 41.1;
                                        }
                                    } else {
                                        var0 = 41.5;
                                    }
                                } else {
                                    if (input[28] <= -1.155877560377121) {
                                        var0 = 45.0;
                                    } else {
                                        var0 = 43.3;
                                    }
                                }
                            }
                        }
                    } else {
                        if (input[3] <= 1.5367085337638855) {
                            if (input[14] <= 0.4706689864397049) {
                                if (input[7] <= -1.694008231163025) {
                                    if (input[21] <= -0.0037584900856018066) {
                                        var0 = 40.2;
                                    } else {
                                        if (input[17] <= -2.2653549909591675) {
                                            if (input[9] <= -0.8511306848376989) {
                                                if (input[19] <= -2.003572463989258) {
                                                    var0 = 35.0;
                                                } else {
                                                    var0 = 35.5;
                                                }
                                            } else {
                                                var0 = 34.4;
                                            }
                                        } else {
                                            if (input[10] <= 0.5615124404430389) {
                                                var0 = 37.6;
                                            } else {
                                                var0 = 36.9;
                                            }
                                        }
                                    }
                                } else {
                                    if (input[15] <= -0.342726968228817) {
                                        var0 = 30.1;
                                    } else {
                                        if (input[10] <= 0.5175531506538391) {
                                            var0 = 32.0;
                                        } else {
                                            var0 = 33.7;
                                        }
                                    }
                                }
                            } else {
                                if (input[5] <= -1.5298064053058624) {
                                    var0 = 23.2;
                                } else {
                                    var0 = 24.7;
                                }
                            }
                        } else {
                            if (input[27] <= -1.1317928433418274) {
                                var0 = 46.70000000000001;
                            } else {
                                var0 = 41.3;
                            }
                        }
                    }
                } else {
                    if (input[19] <= -0.2772786468267441) {
                        if (input[15] <= -0.43503010272979736) {
                            if (input[13] <= -0.9357256293296814) {
                                var0 = 47.70000000000001;
                            } else {
                                if (input[22] <= 2.286465108394623) {
                                    if (input[6] <= -0.3773995712399483) {
                                        var0 = 47.1;
                                    } else {
                                        var0 = 47.2;
                                    }
                                } else {
                                    var0 = 46.79999999999999;
                                }
                            }
                        } else {
                            var0 = 52.1;
                        }
                    } else {
                        if (input[3] <= -0.6076123341917992) {
                            var0 = 42.1;
                        } else {
                            var0 = 45.0;
                        }
                    }
                }
            }
        } else {
            if (input[9] <= -0.41637323796749115) {
                if (input[8] <= 0.09319087490439415) {
                    if (input[3] <= 1.5080154538154602) {
                        if (input[26] <= 1.535459280014038) {
                            if (input[19] <= -1.6008440852165222) {
                                if (input[26] <= 0.4988676905632019) {
                                    if (input[6] <= 0.17347227036952972) {
                                        if (input[2] <= -0.6610002666711807) {
                                            if (input[23] <= 0.6548081934452057) {
                                                var0 = 19.3;
                                            } else {
                                                var0 = 19.4;
                                            }
                                        } else {
                                            var0 = 18.4;
                                        }
                                    } else {
                                        if (input[9] <= -1.9594213366508484) {
                                            var0 = 20.6;
                                        } else {
                                            var0 = 20.2;
                                        }
                                    }
                                } else {
                                    if (input[25] <= 0.11309358105063438) {
                                        if (input[7] <= -1.7852500677108765) {
                                            if (input[2] <= 1.5894992724061012) {
                                                var0 = 24.9;
                                            } else {
                                                var0 = 25.6;
                                            }
                                        } else {
                                            var0 = 28.3;
                                        }
                                    } else {
                                        if (input[12] <= 0.7040553390979767) {
                                            if (input[27] <= -1.602139174938202) {
                                                if (input[27] <= -1.750569760799408) {
                                                    if (input[21] <= 1.0697260797023773) {
                                                        var0 = 21.8;
                                                    } else {
                                                        var0 = 21.6;
                                                    }
                                                } else {
                                                    var0 = 20.7;
                                                }
                                            } else {
                                                if (input[22] <= 0.3387695401906967) {
                                                    var0 = 19.2;
                                                } else {
                                                    var0 = 20.0;
                                                }
                                            }
                                        } else {
                                            if (input[4] <= 0.28185924515128136) {
                                                var0 = 24.4;
                                            } else {
                                                var0 = 22.6;
                                            }
                                        }
                                    }
                                }
                            } else {
                                if (input[17] <= -1.4677419066429138) {
                                    if (input[10] <= 0.7549334466457367) {
                                        var0 = 29.1;
                                    } else {
                                        var0 = 34.2;
                                    }
                                } else {
                                    if (input[19] <= -0.9150348007678986) {
                                        var0 = 26.6;
                                    } else {
                                        if (input[26] <= 0.4403298646211624) {
                                            var0 = 22.0;
                                        } else {
                                            if (input[13] <= -0.22545981779694557) {
                                                var0 = 22.8;
                                            } else {
                                                var0 = 23.5;
                                            }
                                        }
                                    }
                                }
                            }
                        } else {
                            if (input[24] <= -0.21977899223566055) {
                                if (input[28] <= 1.1879302449524403) {
                                    if (input[17] <= -1.592696338891983) {
                                        var0 = 33.7;
                                    } else {
                                        var0 = 33.7;
                                    }
                                } else {
                                    var0 = 37.9;
                                }
                            } else {
                                if (input[15] <= -1.5853770077228546) {
                                    var0 = 27.6;
                                } else {
                                    var0 = 27.899999999999995;
                                }
                            }
                        }
                    } else {
                        var0 = 9.2;
                    }
                } else {
                    if (input[18] <= 0.312934473156929) {
                        if (input[28] <= 0.23144375160336494) {
                            if (input[8] <= 0.49163641035556793) {
                                var0 = 26.6;
                            } else {
                                var0 = 28.5;
                            }
                        } else {
                            if (input[13] <= 2.2075502276420593) {
                                if (input[10] <= 0.886811375617981) {
                                    var0 = 18.4;
                                } else {
                                    var0 = 20.0;
                                }
                            } else {
                                var0 = 8.1;
                            }
                        }
                    } else {
                        if (input[27] <= -0.3918810784816742) {
                            if (input[8] <= 2.219476342201233) {
                                if (input[9] <= -1.4353167414665222) {
                                    if (input[26] <= 1.8791745901107788) {
                                        if (input[12] <= -1.5083350539207458) {
                                            if (input[9] <= -3.6654886603355408) {
                                                var0 = 23.2;
                                            } else {
                                                var0 = 21.0;
                                            }
                                        } else {
                                            if (input[20] <= 0.6670148372650146) {
                                                if (input[22] <= 0.2751893848180771) {
                                                    var0 = 15.9;
                                                } else {
                                                    var0 = 14.3;
                                                }
                                            } else {
                                                if (input[8] <= 0.8650909662246704) {
                                                    if (input[9] <= -1.6755821704864502) {
                                                        if (input[8] <= 0.47366510331630707) {
                                                            var0 = 18.4;
                                                        } else {
                                                            if (input[29] <= -2.1053780913352966) {
                                                                if (input[25] <= -1.0457114204764366) {
                                                                    var0 = 17.2;
                                                                } else {
                                                                    var0 = 17.4;
                                                                }
                                                            } else {
                                                                var0 = 17.7;
                                                            }
                                                        }
                                                    } else {
                                                        if (input[14] <= 0.9043609201908112) {
                                                            var0 = 16.1;
                                                        } else {
                                                            var0 = 16.7;
                                                        }
                                                    }
                                                } else {
                                                    if (input[4] <= 1.0944443941116333) {
                                                        var0 = 18.4;
                                                    } else {
                                                        var0 = 19.4;
                                                    }
                                                }
                                            }
                                        }
                                    } else {
                                        if (input[29] <= -1.8372665643692017) {
                                            if (input[9] <= -2.355015993118286) {
                                                if (input[15] <= -0.03897261433303356) {
                                                    var0 = 15.3;
                                                } else {
                                                    var0 = 14.9;
                                                }
                                            } else {
                                                var0 = 14.0;
                                            }
                                        } else {
                                            var0 = 11.3;
                                        }
                                    }
                                } else {
                                    if (input[0] <= 0.3505077436566353) {
                                        var0 = 25.9;
                                    } else {
                                        if (input[21] <= 0.5633130669593811) {
                                            if (input[17] <= -0.5810576975345612) {
                                                if (input[27] <= -0.6876682937145233) {
                                                    if (input[15] <= 1.3217567801475525) {
                                                        if (input[0] <= 1.1505672931671143) {
                                                            if (input[21] <= 0.29787012934684753) {
                                                                var0 = 10.3;
                                                            } else {
                                                                var0 = 10.4;
                                                            }
                                                        } else {
                                                            var0 = 10.8;
                                                        }
                                                    } else {
                                                        if (input[16] <= 0.7020325064659119) {
                                                            var0 = 11.8;
                                                        } else {
                                                            var0 = 11.3;
                                                        }
                                                    }
                                                } else {
                                                    if (input[17] <= -0.6320995390415192) {
                                                        if (input[8] <= 0.9022252857685089) {
                                                            if (input[25] <= 0.21942785009741783) {
                                                                var0 = 11.8;
                                                            } else {
                                                                if (input[3] <= -0.12084121629595757) {
                                                                    var0 = 12.5;
                                                                } else {
                                                                    if (input[2] <= 1.504106044769287) {
                                                                        var0 = 12.8;
                                                                    } else {
                                                                        var0 = 12.7;
                                                                    }
                                                                }
                                                            }
                                                        } else {
                                                            var0 = 13.4;
                                                        }
                                                    } else {
                                                        var0 = 14.9;
                                                    }
                                                }
                                            } else {
                                                if (input[6] <= 0.9125244319438934) {
                                                    if (input[17] <= -0.4764012396335602) {
                                                        var0 = 9.6;
                                                    } else {
                                                        var0 = 9.1;
                                                    }
                                                } else {
                                                    var0 = 10.8;
                                                }
                                            }
                                        } else {
                                            if (input[28] <= 1.792702555656433) {
                                                if (input[10] <= 1.1593591570854187) {
                                                    if (input[5] <= -0.7214163839817047) {
                                                        if (input[22] <= 2.0659981966018677) {
                                                            if (input[17] <= -0.4447432905435562) {
                                                                var0 = 13.5;
                                                            } else {
                                                                var0 = 13.699999999999998;
                                                            }
                                                        } else {
                                                            var0 = 14.0;
                                                        }
                                                    } else {
                                                        if (input[5] <= -0.35417683608829975) {
                                                            var0 = 14.7;
                                                        } else {
                                                            var0 = 14.6;
                                                        }
                                                    }
                                                } else {
                                                    if (input[14] <= 1.9909308552742004) {
                                                        if (input[24] <= -0.08866989612579346) {
                                                            var0 = 16.4;
                                                        } else {
                                                            var0 = 15.6;
                                                        }
                                                    } else {
                                                        var0 = 17.4;
                                                    }
                                                }
                                            } else {
                                                var0 = 10.0;
                                            }
                                        }
                                    }
                                }
                            } else {
                                if (input[9] <= -1.6774571537971497) {
                                    if (input[25] <= -2.1946555376052856) {
                                        var0 = 15.300000000000002;
                                    } else {
                                        if (input[13] <= 0.28747905045747757) {
                                            if (input[17] <= -0.6491228640079498) {
                                                var0 = 11.3;
                                            } else {
                                                var0 = 10.3;
                                            }
                                        } else {
                                            var0 = 6.8;
                                        }
                                    }
                                } else {
                                    if (input[11] <= 2.8665164709091187) {
                                        var0 = 6.3;
                                    } else {
                                        var0 = 0.0;
                                    }
                                }
                            }
                        } else {
                            if (input[22] <= 0.510201707482338) {
                                if (input[13] <= 0.25274984538555145) {
                                    var0 = 7.4;
                                } else {
                                    if (input[9] <= -0.905048280954361) {
                                        var0 = 8.8;
                                    } else {
                                        if (input[6] <= 0.40319178998470306) {
                                            var0 = 8.1;
                                        } else {
                                            var0 = 8.4;
                                        }
                                    }
                                }
                            } else {
                                if (input[4] <= -0.8045939207077026) {
                                    var0 = 5.2;
                                } else {
                                    if (input[1] <= 0.5171649754047394) {
                                        var0 = 2.1;
                                    } else {
                                        var0 = 3.2;
                                    }
                                }
                            }
                        }
                    }
                }
            } else {
                if (input[21] <= -0.773397296667099) {
                    var0 = -39.6;
                } else {
                    if (input[29] <= -1.80840402841568) {
                        if (input[0] <= 1.0186893343925476) {
                            var0 = 22.4;
                        } else {
                            var0 = 18.4;
                        }
                    } else {
                        if (input[12] <= 2.606178879737854) {
                            if (input[16] <= -0.5931894779205322) {
                                var0 = 15.800000000000002;
                            } else {
                                if (input[11] <= -0.8694765865802765) {
                                    var0 = -12.4;
                                } else {
                                    if (input[23] <= 0.9012153744697571) {
                                        if (input[21] <= -0.30069123208522797) {
                                            if (input[10] <= -0.48471927642822266) {
                                                var0 = -1.4;
                                            } else {
                                                var0 = 1.4;
                                            }
                                        } else {
                                            if (input[29] <= -0.7922769784927368) {
                                                if (input[13] <= -0.1915830783545971) {
                                                    if (input[27] <= -1.06320121884346) {
                                                        var0 = 3.6;
                                                    } else {
                                                        var0 = 3.0;
                                                    }
                                                } else {
                                                    if (input[29] <= -1.045409917831421) {
                                                        var0 = 1.6;
                                                    } else {
                                                        if (input[0] <= 0.18346232175827026) {
                                                            var0 = 2.3;
                                                        } else {
                                                            var0 = 2.5;
                                                        }
                                                    }
                                                }
                                            } else {
                                                if (input[24] <= -0.06374959647655487) {
                                                    if (input[22] <= 0.38188087940216064) {
                                                        var0 = 4.0;
                                                    } else {
                                                        if (input[18] <= 1.5173752307891846) {
                                                            var0 = 3.7;
                                                        } else {
                                                            var0 = 3.8;
                                                        }
                                                    }
                                                } else {
                                                    if (input[8] <= 0.6315266825258732) {
                                                        var0 = 4.7;
                                                    } else {
                                                        if (input[21] <= 1.6362964510917664) {
                                                            var0 = 4.2;
                                                        } else {
                                                            var0 = 4.4;
                                                        }
                                                    }
                                                }
                                            }
                                        }
                                    } else {
                                        if (input[18] <= 0.7235260009765625) {
                                            if (input[23] <= 1.7562053799629211) {
                                                var0 = 9.5;
                                            } else {
                                                var0 = 12.4;
                                            }
                                        } else {
                                            if (input[10] <= 1.0362730622291565) {
                                                var0 = 6.3;
                                            } else {
                                                var0 = 3.4;
                                            }
                                        }
                                    }
                                }
                            }
                        } else {
                            if (input[10] <= 1.4406988024711609) {
                                var0 = -9.5;
                            } else {
                                if (input[8] <= 1.896165907382965) {
                                    var0 = -7.1;
                                } else {
                                    var0 = -7.6;
                                }
                            }
                        }
                    }
                }
            }
        }
    } else {
        if (input[8] <= 0.2188694104552269) {
            if (input[18] <= -0.2983385771512985) {
                if (input[8] <= -0.2952244430780411) {
                    if (input[10] <= 1.1593591570854187) {
                        if (input[6] <= -0.05019225925207138) {
                            if (input[1] <= -0.7150941491127014) {
                                if (input[27] <= 0.26963159441947937) {
                                    if (input[12] <= -0.718047022819519) {
                                        if (input[17] <= 0.4066208600997925) {
                                            var0 = -45.0;
                                        } else {
                                            var0 = -46.5;
                                        }
                                    } else {
                                        if (input[24] <= 0.5181471630930901) {
                                            var0 = -41.3;
                                        } else {
                                            var0 = -42.9;
                                        }
                                    }
                                } else {
                                    if (input[28] <= -0.5877851247787476) {
                                        if (input[4] <= -0.33833951503038406) {
                                            if (input[6] <= -0.825218677520752) {
                                                if (input[16] <= -0.6520678997039795) {
                                                    var0 = -36.6;
                                                } else {
                                                    var0 = -36.0;
                                                }
                                            } else {
                                                var0 = -31.4;
                                            }
                                        } else {
                                            if (input[25] <= 0.6654107868671417) {
                                                var0 = -45.0;
                                            } else {
                                                var0 = -39.7;
                                            }
                                        }
                                    } else {
                                        if (input[10] <= -0.994647353887558) {
                                            if (input[26] <= -0.7325334548950195) {
                                                if (input[13] <= 0.38766323029994965) {
                                                    var0 = -27.2;
                                                } else {
                                                    var0 = -28.1;
                                                }
                                            } else {
                                                if (input[25] <= 0.669970765709877) {
                                                    if (input[6] <= -0.6173478960990906) {
                                                        var0 = -31.8;
                                                    } else {
                                                        var0 = -33.2;
                                                    }
                                                } else {
                                                    var0 = -30.5;
                                                }
                                            }
                                        } else {
                                            if (input[17] <= 0.6752165853977203) {
                                                if (input[2] <= -0.42252954840660095) {
                                                    if (input[8] <= -0.7791298627853394) {
                                                        var0 = -34.7;
                                                    } else {
                                                        var0 = -35.0;
                                                    }
                                                } else {
                                                    var0 = -35.4;
                                                }
                                            } else {
                                                if (input[6] <= -0.7308142185211182) {
                                                    if (input[28] <= -0.2320362627506256) {
                                                        if (input[6] <= -0.9823910295963287) {
                                                            var0 = -32.7;
                                                        } else {
                                                            var0 = -32.8;
                                                        }
                                                    } else {
                                                        if (input[19] <= 0.2210165560245514) {
                                                            var0 = -33.0;
                                                        } else {
                                                            var0 = -32.9;
                                                        }
                                                    }
                                                } else {
                                                    var0 = -33.4;
                                                }
                                            }
                                        }
                                    }
                                }
                            } else {
                                if (input[29] <= 0.6669700145721436) {
                                    if (input[26] <= -1.0467607975006104) {
                                        if (input[12] <= -0.2021779865026474) {
                                            if (input[21] <= -0.7854290008544922) {
                                                if (input[17] <= 0.7991909682750702) {
                                                    var0 = -40.6;
                                                } else {
                                                    if (input[26] <= -1.2650808095932007) {
                                                        var0 = -36.0;
                                                    } else {
                                                        if (input[11] <= -0.4417463392019272) {
                                                            var0 = -38.3;
                                                        } else {
                                                            var0 = -37.5;
                                                        }
                                                    }
                                                }
                                            } else {
                                                if (input[15] <= 0.45284171402454376) {
                                                    var0 = -30.7;
                                                } else {
                                                    if (input[0] <= 0.01641692966222763) {
                                                        if (input[24] <= 0.29380711168050766) {
                                                            if (input[5] <= 1.1095128655433655) {
                                                                var0 = -34.7;
                                                            } else {
                                                                var0 = -34.5;
                                                            }
                                                        } else {
                                                            var0 = -34.1;
                                                        }
                                                    } else {
                                                        var0 = -33.2;
                                                    }
                                                }
                                            }
                                        } else {
                                            if (input[9] <= 0.2903908044099808) {
                                                if (input[18] <= -0.7146045565605164) {
                                                    if (input[9] <= 0.06398419919423759) {
                                                        var0 = -40.1;
                                                    } else {
                                                        if (input[2] <= 0.7375654429197311) {
                                                            var0 = -39.4;
                                                        } else {
                                                            var0 = -39.3;
                                                        }
                                                    }
                                                } else {
                                                    if (input[1] <= -0.46059755980968475) {
                                                        var0 = -40.8;
                                                    } else {
                                                        var0 = -41.4;
                                                    }
                                                }
                                            } else {
                                                var0 = -45.0;
                                            }
                                        }
                                    } else {
                                        if (input[12] <= -0.812865823507309) {
                                            if (input[20] <= -1.328738123178482) {
                                                var0 = -45.0;
                                            } else {
                                                if (input[29] <= 0.32272543013095856) {
                                                    if (input[7] <= 1.0831744372844696) {
                                                        if (input[9] <= 0.6685208678245544) {
                                                            if (input[19] <= 0.6441433131694794) {
                                                                var0 = -37.1;
                                                            } else {
                                                                var0 = -37.4;
                                                            }
                                                        } else {
                                                            var0 = -35.3;
                                                        }
                                                    } else {
                                                        if (input[3] <= -2.266394078731537) {
                                                            var0 = -38.7;
                                                        } else {
                                                            var0 = -41.2;
                                                        }
                                                    }
                                                } else {
                                                    if (input[9] <= 0.3310755044221878) {
                                                        var0 = -30.3;
                                                    } else {
                                                        var0 = -32.2;
                                                    }
                                                }
                                            }
                                        } else {
                                            if (input[17] <= -0.08415580913424492) {
                                                var0 = -29.7;
                                            } else {
                                                if (input[4] <= 0.14005688577890396) {
                                                    if (input[7] <= 0.24900055676698685) {
                                                        var0 = -36.9;
                                                    } else {
                                                        if (input[1] <= -0.6728659272193909) {
                                                            var0 = -38.2;
                                                        } else {
                                                            if (input[26] <= -0.8839726746082306) {
                                                                if (input[4] <= -0.052309649996459484) {
                                                                    if (input[28] <= -0.49993249773979187) {
                                                                        if (input[0] <= -0.4759274125099182) {
                                                                            var0 = -43.20000000000001;
                                                                        } else {
                                                                            var0 = -43.29999999999999;
                                                                        }
                                                                    } else {
                                                                        var0 = -44.1;
                                                                    }
                                                                } else {
                                                                    var0 = -41.8;
                                                                }
                                                            } else {
                                                                if (input[2] <= 0.3661397844552994) {
                                                                    if (input[29] <= 0.5029521584510803) {
                                                                        if (input[8] <= -0.6816646158695221) {
                                                                            if (input[17] <= 0.692154198884964) {
                                                                                if (input[13] <= 0.887346014380455) {
                                                                                    var0 = -42.2;
                                                                                } else {
                                                                                    var0 = -43.0;
                                                                                }
                                                                            } else {
                                                                                if (input[17] <= 0.7862170338630676) {
                                                                                    var0 = -44.1;
                                                                                } else {
                                                                                    if (input[26] <= -0.43328312039375305) {
                                                                                        if (input[0] <= -0.5198867321014404) {
                                                                                            if (input[9] <= 0.1742459386587143) {
                                                                                                var0 = -44.1;
                                                                                            } else {
                                                                                                var0 = -45.0;
                                                                                            }
                                                                                        } else {
                                                                                            var0 = -45.0;
                                                                                        }
                                                                                    } else {
                                                                                        var0 = -45.8;
                                                                                    }
                                                                                }
                                                                            }
                                                                        } else {
                                                                            if (input[24] <= -0.33026325004175305) {
                                                                                if (input[23] <= 0.6494974493980408) {
                                                                                    var0 = -44.2;
                                                                                } else {
                                                                                    var0 = -45.0;
                                                                                }
                                                                            } else {
                                                                                if (input[11] <= -0.3655649423599243) {
                                                                                    var0 = -45.9;
                                                                                } else {
                                                                                    var0 = -46.5;
                                                                                }
                                                                            }
                                                                        }
                                                                    } else {
                                                                        if (input[13] <= 0.6134147942066193) {
                                                                            var0 = -43.3;
                                                                        } else {
                                                                            var0 = -40.8;
                                                                        }
                                                                    }
                                                                } else {
                                                                    if (input[8] <= -0.73713818192482) {
                                                                        var0 = -47.0;
                                                                    } else {
                                                                        var0 = -49.4;
                                                                    }
                                                                }
                                                            }
                                                        }
                                                    }
                                                } else {
                                                    if (input[29] <= 0.2692234516143799) {
                                                        if (input[4] <= 0.2146928608417511) {
                                                            if (input[10] <= -0.4759274199604988) {
                                                                var0 = -30.5;
                                                            } else {
                                                                if (input[9] <= -0.05654056370258331) {
                                                                    var0 = -45.0;
                                                                } else {
                                                                    if (input[25] <= 1.0431731045246124) {
                                                                        var0 = -40.8;
                                                                    } else {
                                                                        var0 = -41.9;
                                                                    }
                                                                }
                                                            }
                                                        } else {
                                                            if (input[16] <= -0.6458808481693268) {
                                                                if (input[21] <= -0.5635453164577484) {
                                                                    if (input[7] <= 0.6639980375766754) {
                                                                        var0 = -45.0;
                                                                    } else {
                                                                        var0 = -45.9;
                                                                    }
                                                                } else {
                                                                    if (input[25] <= 1.0764816999435425) {
                                                                        if (input[3] <= 0.5963664352893829) {
                                                                            var0 = -46.4;
                                                                        } else {
                                                                            if (input[8] <= -0.8612239062786102) {
                                                                                var0 = -46.3;
                                                                            } else {
                                                                                if (input[28] <= -0.23878036439418793) {
                                                                                    var0 = -46.2;
                                                                                } else {
                                                                                    var0 = -46.2;
                                                                                }
                                                                            }
                                                                        }
                                                                    } else {
                                                                        if (input[17] <= 0.4850110113620758) {
                                                                            var0 = -46.1;
                                                                        } else {
                                                                            var0 = -46.0;
                                                                        }
                                                                    }
                                                                }
                                                            } else {
                                                                if (input[23] <= -0.27944014966487885) {
                                                                    var0 = -45.0;
                                                                } else {
                                                                    if (input[6] <= -0.8818056583404541) {
                                                                        var0 = -43.8;
                                                                    } else {
                                                                        var0 = -43.2;
                                                                    }
                                                                }
                                                            }
                                                        }
                                                    } else {
                                                        if (input[20] <= -0.6253890991210938) {
                                                            var0 = -34.5;
                                                        } else {
                                                            if (input[5] <= 0.2936159521341324) {
                                                                var0 = -45.0;
                                                            } else {
                                                                if (input[2] <= -0.015497657703235745) {
                                                                    if (input[13] <= 0.677685409784317) {
                                                                        if (input[4] <= 0.32766618579626083) {
                                                                            var0 = -40.7;
                                                                        } else {
                                                                            if (input[25] <= 0.7142752483487129) {
                                                                                var0 = -38.9;
                                                                            } else {
                                                                                var0 = -39.3;
                                                                            }
                                                                        }
                                                                    } else {
                                                                        if (input[6] <= -0.5334796607494354) {
                                                                            if (input[9] <= 0.3949805125594139) {
                                                                                var0 = -37.1;
                                                                            } else {
                                                                                var0 = -36.9;
                                                                            }
                                                                        } else {
                                                                            var0 = -37.9;
                                                                        }
                                                                    }
                                                                } else {
                                                                    if (input[24] <= 1.005081981420517) {
                                                                        if (input[19] <= 0.13780970871448517) {
                                                                            if (input[15] <= 1.0317336916923523) {
                                                                                var0 = -44.1;
                                                                            } else {
                                                                                var0 = -43.9;
                                                                            }
                                                                        } else {
                                                                            if (input[4] <= 0.34106460213661194) {
                                                                                if (input[4] <= 0.22092143446207047) {
                                                                                    var0 = -40.2;
                                                                                } else {
                                                                                    var0 = -40.3;
                                                                                }
                                                                            } else {
                                                                                if (input[24] <= 0.3516969084739685) {
                                                                                    if (input[20] <= -0.15062846802175045) {
                                                                                        var0 = -41.3;
                                                                                    } else {
                                                                                        if (input[28] <= -1.1234009265899658) {
                                                                                            var0 = -41.6;
                                                                                        } else {
                                                                                            var0 = -41.9;
                                                                                        }
                                                                                    }
                                                                                } else {
                                                                                    if (input[21] <= -0.12211132049560547) {
                                                                                        var0 = -42.3;
                                                                                    } else {
                                                                                        var0 = -42.9;
                                                                                    }
                                                                                }
                                                                            }
                                                                        }
                                                                    } else {
                                                                        if (input[22] <= 0.8610592782497406) {
                                                                            var0 = -39.9;
                                                                        } else {
                                                                            var0 = -38.5;
                                                                        }
                                                                    }
                                                                }
                                                            }
                                                        }
                                                    }
                                                }
                                            }
                                        }
                                    }
                                } else {
                                    if (input[11] <= -0.295414000749588) {
                                        if (input[13] <= 0.34869882464408875) {
                                            if (input[6] <= -0.14713383466005325) {
                                                if (input[18] <= -0.6549188792705536) {
                                                    if (input[24] <= -0.1805734932422638) {
                                                        var0 = -26.6;
                                                    } else {
                                                        var0 = -27.8;
                                                    }
                                                } else {
                                                    var0 = -29.1;
                                                }
                                            } else {
                                                var0 = -34.2;
                                            }
                                        } else {
                                            if (input[6] <= -0.6511459499597549) {
                                                if (input[29] <= 0.7292197942733765) {
                                                    var0 = -34.8;
                                                } else {
                                                    if (input[10] <= -0.1418366078287363) {
                                                        var0 = -34.5;
                                                    } else {
                                                        var0 = -34.3;
                                                    }
                                                }
                                            } else {
                                                if (input[9] <= 0.5136528462171555) {
                                                    var0 = -37.6;
                                                } else {
                                                    var0 = -39.8;
                                                }
                                            }
                                        }
                                    } else {
                                        if (input[18] <= -1.2706140279769897) {
                                            if (input[2] <= 0.8656327128410339) {
                                                if (input[14] <= 0.40473503060638905) {
                                                    if (input[21] <= -0.3628077954053879) {
                                                        var0 = -42.3;
                                                    } else {
                                                        if (input[0] <= 0.7197659909725189) {
                                                            var0 = -41.7;
                                                        } else {
                                                            var0 = -41.5;
                                                        }
                                                    }
                                                } else {
                                                    var0 = -45.0;
                                                }
                                            } else {
                                                if (input[9] <= 0.6806154400110245) {
                                                    var0 = -40.0;
                                                } else {
                                                    var0 = -39.6;
                                                }
                                            }
                                        } else {
                                            if (input[19] <= 0.2482939101755619) {
                                                if (input[11] <= -0.07332724810112268) {
                                                    var0 = -39.0;
                                                } else {
                                                    if (input[7] <= 0.5755984038114548) {
                                                        var0 = -45.0;
                                                    } else {
                                                        var0 = -42.7;
                                                    }
                                                }
                                            } else {
                                                if (input[6] <= -0.298667848110199) {
                                                    if (input[26] <= 0.3845716118812561) {
                                                        if (input[7] <= 1.7832103967666626) {
                                                            if (input[26] <= -0.5139729678630829) {
                                                                if (input[19] <= 0.7101054787635803) {
                                                                    var0 = -36.3;
                                                                } else {
                                                                    var0 = -37.1;
                                                                }
                                                            } else {
                                                                if (input[21] <= -0.044242748990654945) {
                                                                    if (input[26] <= -0.11781951785087585) {
                                                                        var0 = -38.9;
                                                                    } else {
                                                                        var0 = -38.7;
                                                                    }
                                                                } else {
                                                                    if (input[24] <= -0.0586380660533905) {
                                                                        var0 = -37.9;
                                                                    } else {
                                                                        if (input[28] <= -0.6102317422628403) {
                                                                            var0 = -38.4;
                                                                        } else {
                                                                            var0 = -38.3;
                                                                        }
                                                                    }
                                                                }
                                                            }
                                                        } else {
                                                            var0 = -40.4;
                                                        }
                                                    } else {
                                                        if (input[0] <= 0.34171587973833084) {
                                                            var0 = -36.5;
                                                        } else {
                                                            if (input[21] <= 0.6923798322677612) {
                                                                var0 = -34.7;
                                                            } else {
                                                                var0 = -35.1;
                                                            }
                                                        }
                                                    }
                                                } else {
                                                    if (input[25] <= 0.3762675151228905) {
                                                        if (input[20] <= 0.40325891971588135) {
                                                            var0 = -34.0;
                                                        } else {
                                                            var0 = -31.9;
                                                        }
                                                    } else {
                                                        if (input[24] <= 0.06778386235237122) {
                                                            var0 = -36.4;
                                                        } else {
                                                            var0 = -35.9;
                                                        }
                                                    }
                                                }
                                            }
                                        }
                                    }
                                }
                            }
                        } else {
                            if (input[18] <= -0.7183241546154022) {
                                if (input[7] <= 1.9691985249519348) {
                                    if (input[2] <= 0.0979984924197197) {
                                        if (input[1] <= 0.9316056668758392) {
                                            if (input[27] <= 0.4789521396160126) {
                                                var0 = -35.5;
                                            } else {
                                                if (input[22] <= -0.5051771253347397) {
                                                    var0 = -36.1;
                                                } else {
                                                    var0 = -36.6;
                                                }
                                            }
                                        } else {
                                            if (input[4] <= -1.0602855682373047) {
                                                var0 = -37.4;
                                            } else {
                                                var0 = -37.6;
                                            }
                                        }
                                    } else {
                                        if (input[29] <= 1.327254295349121) {
                                            if (input[24] <= 0.7002874165773392) {
                                                if (input[7] <= 1.0711629986763) {
                                                    var0 = -35.5;
                                                } else {
                                                    if (input[21] <= 0.25852998346090317) {
                                                        if (input[4] <= 0.5131113119423389) {
                                                            var0 = -34.7;
                                                        } else {
                                                            var0 = -34.5;
                                                        }
                                                    } else {
                                                        var0 = -35.0;
                                                    }
                                                }
                                            } else {
                                                if (input[28] <= -0.7982377409934998) {
                                                    if (input[12] <= 1.41847163438797) {
                                                        var0 = -33.7;
                                                    } else {
                                                        var0 = -34.1;
                                                    }
                                                } else {
                                                    if (input[13] <= 0.5754514113068581) {
                                                        var0 = -33.4;
                                                    } else {
                                                        var0 = -32.7;
                                                    }
                                                }
                                            }
                                        } else {
                                            if (input[13] <= 0.5825438350439072) {
                                                if (input[12] <= 0.6765080764889717) {
                                                    var0 = -32.2;
                                                } else {
                                                    var0 = -32.0;
                                                }
                                            } else {
                                                var0 = -30.4;
                                            }
                                        }
                                    }
                                } else {
                                    if (input[9] <= 1.090139389038086) {
                                        if (input[27] <= 1.9271588325500488) {
                                            var0 = -40.2;
                                        } else {
                                            var0 = -40.9;
                                        }
                                    } else {
                                        if (input[19] <= 1.478185772895813) {
                                            var0 = -37.9;
                                        } else {
                                            var0 = -37.2;
                                        }
                                    }
                                }
                            } else {
                                if (input[23] <= 0.4400014877319336) {
                                    if (input[9] <= 0.7846342474222183) {
                                        var0 = -33.1;
                                    } else {
                                        var0 = -31.8;
                                    }
                                } else {
                                    if (input[11] <= 0.4072367548942566) {
                                        if (input[23] <= 0.6688909530639648) {
                                            var0 = -30.3;
                                        } else {
                                            if (input[0] <= 0.7988927662372589) {
                                                var0 = -29.7;
                                            } else {
                                                var0 = -29.5;
                                            }
                                        }
                                    } else {
                                        if (input[21] <= 0.20289424061775208) {
                                            var0 = -31.0;
                                        } else {
                                            var0 = -31.4;
                                        }
                                    }
                                }
                            }
                        }
                    } else {
                        if (input[2] <= 2.654474139213562) {
                            if (input[9] <= 2.1293810606002808) {
                                if (input[4] <= -1.906849205493927) {
                                    if (input[16] <= 0.013373674359172583) {
                                        if (input[25] <= -1.812721610069275) {
                                            var0 = -53.1;
                                        } else {
                                            var0 = -54.5;
                                        }
                                    } else {
                                        if (input[2] <= 0.2510925382375717) {
                                            var0 = -56.3;
                                        } else {
                                            var0 = -59.0;
                                        }
                                    }
                                } else {
                                    if (input[20] <= 0.2713809758424759) {
                                        var0 = -40.2;
                                    } else {
                                        if (input[12] <= 2.0916473865509033) {
                                            if (input[16] <= -0.7983108460903168) {
                                                if (input[26] <= -1.1291475892066956) {
                                                    var0 = -47.4;
                                                } else {
                                                    var0 = -47.5;
                                                }
                                            } else {
                                                var0 = -46.8;
                                            }
                                        } else {
                                            var0 = -48.4;
                                        }
                                    }
                                }
                            } else {
                                if (input[4] <= -2.14070463180542) {
                                    var0 = -45.0;
                                } else {
                                    var0 = -39.3;
                                }
                            }
                        } else {
                            var0 = -31.0;
                        }
                    }
                } else {
                    if (input[4] <= 0.37097664177417755) {
                        if (input[7] <= -0.053282320499420166) {
                            if (input[6] <= -0.19975702604278922) {
                                var0 = -14.699999999999998;
                            } else {
                                var0 = -14.0;
                            }
                        } else {
                            if (input[15] <= 0.7185658514499664) {
                                if (input[6] <= -0.7610947489738464) {
                                    var0 = -45.0;
                                } else {
                                    if (input[24] <= 0.4713849872350693) {
                                        if (input[27] <= 0.0834974143654108) {
                                            if (input[29] <= 0.29429855942726135) {
                                                var0 = -23.2;
                                            } else {
                                                var0 = -18.4;
                                            }
                                        } else {
                                            if (input[22] <= -0.811843991279602) {
                                                if (input[20] <= -1.3287381529808044) {
                                                    var0 = -25.0;
                                                } else {
                                                    var0 = -24.0;
                                                }
                                            } else {
                                                if (input[29] <= 0.4090705066919327) {
                                                    if (input[8] <= -0.26548030972480774) {
                                                        var0 = -27.1;
                                                    } else {
                                                        if (input[15] <= 0.4781852066516876) {
                                                            if (input[19] <= 0.11027055978775024) {
                                                                var0 = -28.4;
                                                            } else {
                                                                var0 = -28.3;
                                                            }
                                                        } else {
                                                            var0 = -28.2;
                                                        }
                                                    }
                                                } else {
                                                    if (input[13] <= 0.30802175402641296) {
                                                        if (input[4] <= -0.22783467918634415) {
                                                            var0 = -27.2;
                                                        } else {
                                                            if (input[21] <= -0.21933390945196152) {
                                                                if (input[26] <= -0.43262743949890137) {
                                                                    var0 = -27.6;
                                                                } else {
                                                                    var0 = -27.7;
                                                                }
                                                            } else {
                                                                var0 = -27.8;
                                                            }
                                                        }
                                                    } else {
                                                        if (input[6] <= -0.2893635891377926) {
                                                            var0 = -26.600000000000005;
                                                        } else {
                                                            var0 = -26.0;
                                                        }
                                                    }
                                                }
                                            }
                                        }
                                    } else {
                                        var0 = -33.5;
                                    }
                                }
                            } else {
                                if (input[29] <= 0.527641773223877) {
                                    if (input[2] <= -0.45287221670150757) {
                                        if (input[24] <= -1.1007324755191803) {
                                            var0 = -37.6;
                                        } else {
                                            if (input[7] <= 0.35893112421035767) {
                                                var0 = -36.4;
                                            } else {
                                                if (input[27] <= 0.3744477704167366) {
                                                    var0 = -35.9;
                                                } else {
                                                    var0 = -36.1;
                                                }
                                            }
                                        }
                                    } else {
                                        if (input[0] <= -0.3704250454902649) {
                                            if (input[17] <= 0.4207368493080139) {
                                                var0 = -41.1;
                                            } else {
                                                var0 = -40.6;
                                            }
                                        } else {
                                            var0 = -43.0;
                                        }
                                    }
                                } else {
                                    if (input[8] <= -0.15948078036308289) {
                                        if (input[8] <= -0.21859967708587646) {
                                            if (input[0] <= -0.26492270082235336) {
                                                var0 = -32.3;
                                            } else {
                                                var0 = -32.5;
                                            }
                                        } else {
                                            var0 = -34.4;
                                        }
                                    } else {
                                        if (input[6] <= -0.4178406223654747) {
                                            if (input[16] <= -1.091789722442627) {
                                                var0 = -22.4;
                                            } else {
                                                var0 = -26.2;
                                            }
                                        } else {
                                            if (input[25] <= 1.5863502025604248) {
                                                var0 = -28.8;
                                            } else {
